<?xml version="1.0"?>
<opencv_storage>
<cascade>
  <stageType>BOOST</stageType>
  <featureType>HAAR</featureType>
  <height>43</height>
  <width>38</width>
  <stageParams>
    <boostType>GAB</boostType>
    <minHitRate>9.9500000476837158e-01</minHitRate>
    <maxFalseAlarm>5.0000000000000000e-01</maxFalseAlarm>
    <weightTrimRate>9.4999998807907104e-01</weightTrimRate>
    <maxDepth>1</maxDepth>
    <maxWeakCount>100</maxWeakCount></stageParams>
  <featureParams>
    <maxCatCount>0</maxCatCount>
    <featSize>1</featSize>
    <mode>BASIC</mode></featureParams>
  <stageNum>3</stageNum>
  <stages>
    <!-- stage 0 -->
    <_>
      <maxWeakCount>4</maxWeakCount>
      <stageThreshold>-8.7997239828109741e-01</stageThreshold>
      <weakClassifiers>
        <_>
          <internalNodes>
            0 -1 4 -2.8671659529209137e-02</internalNodes>
          <leafValues>
            4.6666666865348816e-01 -8.6813187599182129e-01</leafValues></_>
        <_>
          <internalNodes>
            0 -1 1 -1.3006501831114292e-03</internalNodes>
          <leafValues>
            2.9941135644912720e-01 -9.2539250850677490e-01</leafValues></_>
        <_>
          <internalNodes>
            0 -1 0 -8.4870180580765009e-04</internalNodes>
          <leafValues>
            3.8332352042198181e-01 -9.2579573392868042e-01</leafValues></_>
        <_>
          <internalNodes>
            0 -1 3 -5.7137163821607828e-04</internalNodes>
          <leafValues>
            6.5390890836715698e-01 -6.9457536935806274e-01</leafValues></_></weakClassifiers></_>
    <!-- stage 1 -->
    <_>
      <maxWeakCount>3</maxWeakCount>
      <stageThreshold>-8.3875340223312378e-01</stageThreshold>
      <weakClassifiers>
        <_>
          <internalNodes>
            0 -1 7 2.0069947931915522e-03</internalNodes>
          <leafValues>
            -8.3505153656005859e-01 1.</leafValues></_>
        <_>
          <internalNodes>
            0 -1 6 -5.0951406592503190e-05</internalNodes>
          <leafValues>
            6.9811415672302246e-01 -7.6804125308990479e-01</leafValues></_>
        <_>
          <internalNodes>
            0 -1 8 9.1003952547907829e-05</internalNodes>
          <leafValues>
            -6.6771078109741211e-01 7.6433938741683960e-01</leafValues></_></weakClassifiers></_>
    <!-- stage 2 -->
    <_>
      <maxWeakCount>2</maxWeakCount>
      <stageThreshold>4.3956045061349869e-02</stageThreshold>
      <weakClassifiers>
        <_>
          <internalNodes>
            0 -1 2 3.8941454840824008e-04</internalNodes>
          <leafValues>
            1. -9.5604395866394043e-01</leafValues></_>
        <_>
          <internalNodes>
            0 -1 5 -5.8614863519323990e-05</internalNodes>
          <leafValues>
            1. -9.1752523183822632e-01</leafValues></_></weakClassifiers></_></stages>
  <features>
    <_>
      <rects>
        <_>
          1 9 12 20 -1.</_>
        <_>
          1 9 6 10 2.</_>
        <_>
          7 19 6 10 2.</_></rects>
      <tilted>0</tilted></_>
    <_>
      <rects>
        <_>
          1 30 26 1 -1.</_>
        <_>
          14 30 13 1 2.</_></rects>
      <tilted>0</tilted></_>
    <_>
      <rects>
        <_>
          7 15 2 28 -1.</_>
        <_>
          7 15 1 14 2.</_>
        <_>
          8 29 1 14 2.</_></rects>
      <tilted>0</tilted></_>
    <_>
      <rects>
        <_>
          8 30 4 6 -1.</_>
        <_>
          8 32 4 2 3.</_></rects>
      <tilted>0</tilted></_>
    <_>
      <rects>
        <_>
          11 7 10 20 -1.</_>
        <_>
          16 7 5 20 2.</_></rects>
      <tilted>0</tilted></_>
    <_>
      <rects>
        <_>
          17 12 2 4 -1.</_>
        <_>
          18 12 1 4 2.</_></rects>
      <tilted>0</tilted></_>
    <_>
      <rects>
        <_>
          17 14 12 2 -1.</_>
        <_>
          17 15 12 1 2.</_></rects>
      <tilted>0</tilted></_>
    <_>
      <rects>
        <_>
          17 34 21 2 -1.</_>
        <_>
          17 35 21 1 2.</_></rects>
      <tilted>0</tilted></_>
    <_>
      <rects>
        <_>
          22 36 1 4 -1.</_>
        <_>
          22 38 1 2 2.</_></rects>
      <tilted>0</tilted></_></features></cascade>
</opencv_storage>
